tree
version=v3
num_class=1
num_tree_per_iteration=1
label_index=0
max_feature_idx=159
objective=regression_l1
feature_names=stock_id seconds_in_bucket imbalance_size imbalance_buy_sell_flag reference_price matched_size far_price near_price bid_price bid_size ask_price ask_size wap volume mid_price liquidity_imbalance matched_imbalance size_imbalance reference_price_far_price_imb reference_price_near_price_imb reference_price_ask_price_imb reference_price_bid_price_imb reference_price_wap_imb far_price_near_price_imb far_price_ask_price_imb far_price_bid_price_imb far_price_wap_imb near_price_ask_price_imb near_price_bid_price_imb near_price_wap_imb ask_price_bid_price_imb ask_price_wap_imb bid_price_wap_imb ask_price_bid_price_wap_imb2 ask_price_bid_price_reference_price_imb2 ask_price_wap_reference_price_imb2 bid_price_wap_reference_price_imb2 matched_size_bid_size_ask_size_imb2 matched_size_bid_size_imbalance_size_imb2 matched_size_ask_size_imbalance_size_imb2 bid_size_ask_size_imbalance_size_imb2 stock_weights weighted_wap wap_momentum imbalance_momentum price_spread spread_intensity price_pressure market_urgency depth_pressure spread_depth_ratio mid_price_movement micro_price relative_spread all_prices_mean all_sizes_mean all_prices_std all_sizes_std all_prices_skew all_sizes_skew all_prices_kurt all_sizes_kurt matched_size_shift_1 matched_size_ret_1 matched_size_shift_3 matched_size_ret_3 matched_size_shift_5 matched_size_ret_5 matched_size_shift_10 matched_size_ret_10 imbalance_size_shift_1 imbalance_size_ret_1 imbalance_size_shift_3 imbalance_size_ret_3 imbalance_size_shift_5 imbalance_size_ret_5 imbalance_size_shift_10 imbalance_size_ret_10 reference_price_shift_1 reference_price_ret_1 reference_price_shift_3 reference_price_ret_3 reference_price_shift_5 reference_price_ret_5 reference_price_shift_10 reference_price_ret_10 imbalance_buy_sell_flag_shift_1 imbalance_buy_sell_flag_ret_1 imbalance_buy_sell_flag_shift_3 imbalance_buy_sell_flag_ret_3 imbalance_buy_sell_flag_shift_5 imbalance_buy_sell_flag_ret_5 imbalance_buy_sell_flag_shift_10 imbalance_buy_sell_flag_ret_10 ask_price_diff_1 ask_price_diff_3 ask_price_diff_5 ask_price_diff_10 bid_price_diff_1 bid_price_diff_3 bid_price_diff_5 bid_price_diff_10 ask_size_diff_1 ask_size_diff_3 ask_size_diff_5 ask_size_diff_10 bid_size_diff_1 bid_size_diff_3 bid_size_diff_5 bid_size_diff_10 weighted_wap_diff_1 weighted_wap_diff_3 weighted_wap_diff_5 weighted_wap_diff_10 price_spread_diff_1 price_spread_diff_3 price_spread_diff_5 price_spread_diff_10 price_change_diff_3 size_change_diff_3 price_change_diff_5 size_change_diff_5 price_change_diff_10 size_change_diff_10 rolling_diff_ask_price_3 rolling_std_diff_ask_price_3 rolling_diff_bid_price_3 rolling_std_diff_bid_price_3 rolling_diff_ask_size_3 rolling_std_diff_ask_size_3 rolling_diff_bid_size_3 rolling_std_diff_bid_size_3 rolling_diff_ask_price_5 rolling_std_diff_ask_price_5 rolling_diff_bid_price_5 rolling_std_diff_bid_price_5 rolling_diff_ask_size_5 rolling_std_diff_ask_size_5 rolling_diff_bid_size_5 rolling_std_diff_bid_size_5 rolling_diff_ask_price_10 rolling_std_diff_ask_price_10 rolling_diff_bid_price_10 rolling_std_diff_bid_price_10 rolling_diff_ask_size_10 rolling_std_diff_ask_size_10 rolling_diff_bid_size_10 rolling_std_diff_bid_size_10 mid_price*volume harmonic_imbalance dow seconds minute time_to_market_close global_median_size global_std_size global_ptp_size global_median_price global_std_price global_ptp_price
feature_infos=[0:198] [0:540] [0:864677376] [-1:1] [0.98361700773239136:1.0223850011825562] [29435.26953125:3507393792] [0.00019200000679120421:437.95309448242188] [0.89975398778915405:1.1033370494842529] [0.98343998193740845:1.0224499702453613] [21.100000381469727:9403017] [0.98361700773239136:1.0244359970092773] [22.219999313354492:7640848.5] [0.98357397317886353:1.0226229429244995] [83.419998168945312:9406417] [0.9835284948348999:1.0234429836273193] [-0.99990236759185791:0.99991899728775024] [-1:0.94635987281799316] [4.8808717110659927e-05:24663.822265625] [-0.99545580148696899:0.9996153712272644] [-0.047608666121959686:0.052617792040109634] [-0.0041386927478015423:0.0016771039227023721] [-0.0018478853162378073:0.0053268969058990479] [-0.0035233821254223585:0.0041166436858475208] [-0.99960911273956299:0.995414137840271] [-0.99961543083190918:0.99545580148696899] [-0.9996153712272644:0.99546051025390625] [-0.9996153712272644:0.9954599142074585] [-0.052308429032564163:0.047588299959897995] [-0.051912508904933929:0.047662988305091858] [-0.052184306085109711:0.047620117664337158] [6.998516710154945e-06:0.0058676949702203274] [0:0.0053507438860833645] [-0.0039989189244806767:0] [-10168:13504] [-61976:72408] [-14849:18572] [-56708:55918] [-1608055552:5305969152] [2.9442586310324259e-05:24531372] [2.9897621061536483e-05:10103735] [-1180132480:859880960] [0.0010000000474974513:0.039999999105930328] [0.00098357396200299263:0.040271159261465073] [-0.027639660984277725:0.019683023914694786] [-8.4901294708251953:35.478435516357422] [1.4007091522216797e-05:0.011926054954528809] [-0.0064240694046020508:0.010834097862243652] [0:2908804.5] [-0.0098587134853005409:0.0074262982234358788] [-5530412:21917276] [2.2576309311600484e-12:2.1339277736842632e-05] [-1:1] [0.98357468843460083:1.0226223468780518] [1.3997102541907225e-05:0.011792457662522793] [0.82911300659179688:73.824501037597656] [9426.8173828125:891914688] [6.1320406530285254e-06:178.38584899902344] [13050.109375:1752713344] [-2.4494898319244385:2.4494898319244385] [-1.9616857767105103:2] [-6:6] [-5.9999985694885254:4] [29435.26953125:3507393792] [-0.99614721536636353:23.687524795532227] [29435.26953125:3505548032] [-0.99614936113357544:106.70490264892578] [29435.26953125:3507393792] [-0.99614673852920532:107.96989440917969] [29435.26953125:3505548032] [-0.99608153104782104:112.9359130859375] [0:864677376] [-1:27464.337890625] [0:864677376] [-1:28776.21484375] [0:864672000] [-1:20563.416015625] [0:864677376] [-1:41509.23046875] [0.98361700773239136:1.0198169946670532] [-0.016087651252746582:0.019994020462036133] [0.98361700773239136:1.0223850011825562] [-0.022163867950439453:0.019180536270141602] [0.98361700773239136:1.0196900367736816] [-0.016087651252746582:0.019180536270141602] [0.98361700773239136:1.0196900367736816] [-0.01847761869430542:0.020680069923400879] [-1:1] [-2:0] [-1:1] [-2:0] [-1:1] [-2:0] [-1:1] [-2:0] [-0.016026020050048828:0.019778013229370117] [-0.024199008941650391:0.020912051200866699] [-0.016870975494384766:0.020912051200866699] [-0.019748032093048096:0.022088050842285156] [-0.015730023384094238:0.016120016574859619] [-0.023216962814331055:0.016120016574859619] [-0.016586005687713623:0.018819034099578857] [-0.020194053649902344:0.019490957260131836] [-7649809.5:7640475] [-12893467:7633377.5] [-12774282:7549306.5] [-12707851:7594126] [-13434315:9381258] [-13362642:9335026] [-13493084:9335019] [-13483761:9402337] [-0.00020175933605059981:0.00011568069749046117] [-0.00022827625798527151:0.00012924194743391126] [-0.00026999949477612972:0.00016747952031437308] [-0.00026860236539505422:0.00017220020527020097] [-0.0064240694046020508:0.010834097862243652] [-0.0071390271186828613:0.010960102081298828] [-0.0080621242523193359:0.010960102081298828] [-0.011716127395629883:0.01007002592086792] [-0.010960102081298828:0.0071390271186828613] [-13313911:12893513] [-0.010960102081298828:0.0080621242523193359] [-13504571:12917346] [-0.01007002592086792:0.011716127395629883] [-13412095:12592347] [-0.014965335838496685:0.019190391525626183] [0:0.019572200253605843] [-0.015206377021968365:0.01302895974367857] [0:0.018605872988700867] [-5236968:5504910.5] [0:9474722] [-5210481:8213870.5] [0:9834916] [-0.017930006608366966:0.01821218803524971] [0:0.014981070533394814] [-0.017470777034759521:0.017523419111967087] [0:0.014766024425625801] [-5496727:5491219] [0:7007949] [-3446452:4926279] [0:7376391] [-0.015993606299161911:0.018172884359955788] [0:0.015582887455821037] [-0.015761101618409157:0.017449002712965012] [0:0.014984274283051491] [-3002436.5:2840454.5] [0:4658107] [-4171125.25:3366201.25] [92.0869140625:6227973.5] [-8136068.5:9406417] [37.084438323974609:2209639.25] [0:4] [0:50] [0:9] [0:540] [16479.779296875:639569.25] [48416.8359375:1300069.375] [404244.96875:30287728] [1.9995479583740234:2.0008180141448975] [0.0026509501039981842:0.010191904380917549] [0.011628925800323486:0.093690931797027588]
tree_sizes=1709 1713 1714 1705 1714 1711 1725 1730 1726 1701

Tree=0
num_leaves=16
num_cat=0
split_feature=33 15 15 31 32 21 35 20 111 53 15 111 111 21 20
split_gain=3551.57 692.005 619.36 371.259 365.755 271.59 224.209 141.384 136.176 131.991 125.134 79.8603 63.543 52.4396 43.6124
threshold=0.97129210829734813 -0.71343150734901417 0.6567196547985078 0.00015261493535945195 -0.00014465313870459792 1.6551228327443827e-05 0.2013749182224274 -1.3505212791642405e-05 2.5799870684295461e-07 0.00095944848726503562 0.32232642173767095 -8.465647738375991e-07 4.5186280317466304e-07 7.9845431173453124e-06 -1.0018504326581022e-05
decision_type=8 2 2 2 2 2 10 2 10 2 2 8 8 2 2
left_child=2 3 6 13 7 11 12 -4 -7 -5 -8 -3 -1 -2 -6
right_child=1 5 4 9 14 8 10 -9 -10 -11 -12 -13 -14 -15 -16
leaf_value=-0.038331747055053711 -0.037235021591186523 -0.036031007766723633 -0.065338611602783203 -0.021940469741821289 -0.048136711120605469 -0.032335519790649414 -0.043433904647827148 -0.05213618278503418 -0.03783106803894043 0.0091612339019775391 -0.049436092376708984 -0.041937828063964844 -0.043433904647827148 -0.032240152359008789 -0.043034553527832031
leaf_weight=21990 9405 10305 20396 20084 12235 46796 27574 6989 22494 5267 27428 27382 12602 14016 10497
leaf_count=21990 9405 10305 20396 20084 12235 46796 27574 6989 22494 5267 27428 27382 12602 14016 10497
internal_value=-0.0399351 -0.0388984 -0.0410943 -0.0379112 -0.0419845 -0.0393485 -0.0405963 -0.0427629 -0.0389769 -0.0370726 -0.040993 -0.0400316 -0.0399654 -0.0388193 -0.0410465
internal_weight=0 155749 139711 48772 50117 106977 89594 27385 69290 25351 55002 37687 34592 23421 22732
internal_count=295460 155749 139711 48772 50117 106977 89594 27385 69290 25351 55002 37687 34592 23421 22732
is_linear=0
shrinkage=1


Tree=1
num_leaves=16
num_cat=0
split_feature=48 48 48 48 22 22 22 111 154 48 1 21 154 112 1
split_gain=3509.49 1208.99 748.734 314.129 206.199 203.42 170.547 156.596 103.031 88.9878 86.8376 81.495 81.2689 76.4509 64.6167
threshold=3.5597167880041532e-05 -0.00018689080752665174 0.00030327569402288651 -0.00067041689180769015 -2.0006441445730158e-05 5.3641551289729261e-07 -1.4884296319905841e-06 -2.2786855424783423e-07 73623.113281250015 0.00079674311564303945 515.00000000000011 1.0012949587689947e-05 67067.367187500015 -8.1980226696032322e-07 365.00000000000006
decision_type=2 2 2 2 2 2 2 8 2 2 2 2 2 10 2
left_child=1 3 6 13 -5 9 12 14 -7 -4 -8 -9 -2 -1 -3
right_child=2 7 5 4 -6 8 10 11 -10 -11 -12 -13 -14 -15 -16
leaf_value=0.047109842300415039 -0.0084046125411987305 0.0025656819343566895 -0.021448016166687012 0.0031449794769287109 0.013771474361419678 -0.016165554523468018 -0.0028174519538879395 -0.0021793842315673828 0.0072855353355407715 -0.048347592353820801 0.0086802840232849121 0.0015273690223693848 -0.0019142031669616699 0.028304040431976318 0.0059261918067932129
leaf_weight=5661 34673 34348 17755 9421 38414 9098 39719 26045 1682 5316 2535 40189 7665 4925 18014
leaf_count=5661 34673 34348 17755 9421 38414 9098 39719 26045 1682 5316 2535 40189 7665 4925 18014
internal_value=0 0.000891695 -0.00133215 0.00206914 0.00172389 -0.00258898 -0.000829101 0.000311621 -0.00145392 -0.00311897 -0.000379533 -1.14437e-05 -0.00127767 0.00362802 0.000720287
internal_weight=0 177017 118443 58421 47835 33851 84592 118596 10780 23071 42254 66234 42338 10586 52362
internal_count=295460 177017 118443 58421 47835 33851 84592 118596 10780 23071 42254 66234 42338 10586 52362
is_linear=0
shrinkage=0.01


Tree=2
num_leaves=16
num_cat=0
split_feature=48 48 48 48 20 21 20 111 43 154 21 1 48 112 1
split_gain=3425.3 1176.16 735.127 308.857 193.9 181.848 161.205 152.086 88.0621 85.7789 81.3208 78.1558 77.9275 74.2655 64.4074
threshold=3.5597167880041532e-05 -0.00018689080752665174 0.00030327569402288651 -0.00067041689180769015 -1.3505212791642405e-05 7.9845431173453124e-06 -1.3505212791642405e-05 -2.2786855424783423e-07 -0.00022101648937677962 73623.113281250015 1.0012949587689947e-05 515.00000000000011 0.00016998290084302428 -8.1980226696032322e-07 365.00000000000006
decision_type=2 2 2 2 2 2 2 8 8 2 2 2 2 10 2
left_child=1 3 6 13 8 -5 12 14 -4 -6 -9 -8 -2 -1 -3
right_child=2 7 4 5 9 -7 11 10 -10 -11 -12 -13 -14 -15 -16
leaf_value=0.04663874387741089 -0.0050374233722686769 0.0025400251150131227 -0.017633415460586548 0.0045380908250808715 -0.014066151976585388 0.014382513165473938 -0.0023428982496261595 -0.002157590389251709 -0.027942292094230652 0.0072126799821853639 0.0015120953321456909 0.0098423475027084352 -0.011121984720230103 0.028021000027656555 0.0058669298887252808
leaf_weight=5661 32519 34348 6720 12617 6619 35218 33584 26045 18868 1644 40189 2069 16420 4925 18014
leaf_count=5661 32519 34348 6720 12617 6619 35218 33584 26045 18868 1644 40189 2069 16420 4925 18014
internal_value=0 0.00087938 -0.00131763 0.00204073 -0.00256299 0.00169839 -0.000819171 0.000307236 -0.00299313 -0.00123006 -1.11418e-05 -0.000307604 -0.00119177 0.00358647 0.000709975
internal_weight=0 177017 118443 58421 33851 47835 84592 118596 25588 8263 66234 35653 48939 10586 52362
internal_count=295460 177017 118443 58421 33851 47835 84592 118596 25588 8263 66234 35653 48939 10586 52362
is_linear=0
shrinkage=0.01


Tree=3
num_leaves=16
num_cat=0
split_feature=48 48 48 48 22 22 22 99 22 154 48 1 154 112 1
split_gain=3359.53 1157.79 721.348 300.925 197.501 194.166 162.574 152.139 110.992 97.6862 86.4177 83.138 80.4251 71.4021 62.5121
threshold=3.5597167880041532e-05 -0.00018689080752665174 0.00030327569402288651 -0.00067041689180769015 -2.0006441445730158e-05 5.3641551289729261e-07 -1.4884296319905841e-06 -0.00032398104667663569 1.9973807638962175e-06 73623.113281250015 0.00079674311564303945 515.00000000000011 67067.367187500015 -8.1980226696032322e-07 375.00000000000006
decision_type=2 2 2 2 2 2 2 8 2 2 2 2 2 10 2
left_child=1 3 6 13 -5 10 12 14 -9 -7 -4 -8 -2 -1 -3
right_child=2 7 5 4 -6 9 11 8 -10 -11 -12 -13 -14 -15 -16
leaf_value=0.046172356438636777 -0.0082288861632347117 0.0045054199993610385 -0.020954113084077838 0.0030681487739086149 0.013530800622701645 -0.015863237458467482 -0.0027658484518527982 -0.0012005899846553802 0.0022947229444980621 0.0071405531823635106 -0.047586454379558558 0.0085063894838094713 -0.0018446869015693666 0.027740790027379992 0.010207083374261856
leaf_weight=5661 34673 16088 17755 9421 38414 9098 39719 45116 50906 1682 5316 2535 7665 4925 6486
leaf_count=5661 34673 16088 17755 9421 38414 9098 39719 45116 50906 1682 5316 2535 7665 4925 6486
internal_value=0 0.00087068 -0.00130513 0.00202293 0.00168501 -0.00253877 -0.000811369 0.00030302 0.00012932 -0.00142981 -0.00305657 -0.000372433 -0.00124933 0.00354869 0.00104167
internal_weight=0 177017 118443 58421 47835 33851 84592 118596 96022 10780 23071 42254 42338 10586 22574
internal_count=295460 177017 118443 58421 47835 33851 84592 118596 96022 10780 23071 42254 42338 10586 22574
is_linear=0
shrinkage=0.01


Tree=4
num_leaves=16
num_cat=0
split_feature=33 22 11 22 15 15 20 111 30 30 30 111 111 71 43
split_gain=3296.41 652.431 644.683 306.4 257.321 216.865 169.66 143.901 140.171 118.297 79.6634 78.1969 73.2322 61.7304 59.4578
threshold=0.97129210829734813 9.5583651273045702e-05 11052.360351562502 -0.00012678340863203627 -0.71343150734901417 -0.6703926920890807 -1.7494357962277715e-05 -5.9193374113419839e-07 0.00049058796139433991 0.00017478161316830668 0.00010153740367968568 3.4385919889246002e-07 7.842779154998426e-07 -0.074133664369583116 -0.00028506832313723857
decision_type=8 2 2 2 2 2 2 10 2 2 2 8 10 8 10
left_child=2 4 3 14 9 8 11 -6 -3 -2 -5 -4 -7 -8 -1
right_child=1 5 6 10 7 12 13 -9 -10 -11 -12 -13 -14 -15 -16
leaf_value=-0.017348868071258069 0.0049493457951545715 0.017207113090336325 -0.0031994036858975883 -0.0042865696269869802 0.0051637006077170367 0.012101617637455464 -0.0044015387492179871 0.00017673070281744001 0.053367560746490954 0.016908481404364108 -0.011599312096059322 -0.0083905591126680387 0.0021668346555829051 0.001434615955889225 -0.02694345500987768
leaf_weight=4170 20875 15701 22783 15463 29250 16870 4853 55074 3760 9737 34856 18725 4482 27152 11709
leaf_count=4170 20875 15701 22783 15463 29250 16870 4853 55074 3760 9737 34856 18725 4482 27152 11709
internal_value=0 0.001001 -0.00111462 -0.00183045 0.000615264 0.00208711 -0.000469937 0.000330119 0.00285076 0.00140054 -0.00144803 -0.000891758 0.00139067 7.71051e-05 -0.00304163
internal_weight=0 155749 139711 66198 114936 40813 73513 84324 19461 30612 50319 41508 21352 32005 15879
internal_count=295460 155749 139711 66198 114936 40813 73513 84324 19461 30612 50319 41508 21352 32005 15879
is_linear=0
shrinkage=0.01


Tree=5
num_leaves=16
num_cat=0
split_feature=48 48 48 48 22 22 22 99 154 48 1 1 154 43 22
split_gain=3235.21 1117.03 704.581 292.074 192.637 186.866 157.026 147.181 97.0985 84.1969 83.9058 82.0204 78.0356 65.1789 59.4146
threshold=3.5597167880041532e-05 -0.00018689080752665174 0.00030327569402288651 -0.00067041689180769015 -2.0006441445730158e-05 5.3641551289729261e-07 -1.4884296319905841e-06 0.00011202692985534669 73623.113281250015 0.00058521749451756488 365.00000000000006 515.00000000000011 67067.367187500015 0.00071907389792613696 -2.0964062969142102e-05
decision_type=2 2 2 2 2 2 2 8 2 2 2 2 2 10 2
left_child=1 3 6 13 -5 9 12 10 -7 -4 -3 -8 -2 -1 -9
right_child=2 7 5 4 -6 8 11 14 -10 -11 -12 -13 -14 -15 -16
leaf_value=0.039608196648834346 -0.0080841682158719012 0.0016997509402304888 -0.018524534871705176 0.0029755552579975131 0.013303864154890179 -0.015602917077668308 -0.0027055080621653793 -0.0039192624842905996 0.0070548014909809836 -0.037940420950480107 0.0047291529011648896 0.0084561053047552698 -0.0017888101659892502 0.019085735267199876 0.00051368579764664182
leaf_weight=8955 34673 49066 13607 9421 38414 9098 39719 13346 1682 9464 28376 2535 7665 1631 27808
leaf_count=8955 34673 49066 13607 9421 38414 9098 39719 13346 1682 9464 28376 2535 7665 1631 27808
internal_value=0 0.000855202 -0.00127997 0.00198698 0.00165407 -0.00249918 -0.000791983 0.000297624 -0.00141126 -0.00300716 0.00055443 -0.000360601 -0.0012224 0.00349014 -0.000185581
internal_weight=0 177017 118443 58421 47835 33851 84592 118596 10780 23071 77442 42254 42338 10586 41154
internal_count=295460 177017 118443 58421 47835 33851 84592 118596 10780 23071 77442 42254 42338 10586 41154
is_linear=0
shrinkage=0.01


Tree=6
num_leaves=16
num_cat=0
split_feature=48 48 48 21 22 11 48 48 154 22 22 95 99 112 98
split_gain=3181.14 1109.61 716.44 251.916 250.524 160.776 159.25 127.219 116.909 109.292 93.5431 70.1612 69.0946 64.5036 34.3593
threshold=-3.6189094316796393e-05 0.00022521791106555614 -0.00046438386198133225 1.0012949587689947e-05 5.3641551289729261e-07 27843.780273437504 -0.00018689080752665174 0.00058521749451756488 71223.343750000015 -1.0000000180025095e-35 -3.4873337426688518e-06 -6.6012144088745104e-05 -0.00026750564575195307 4.9251318046117387e-07 -0.0001479685306549072
decision_type=2 2 2 2 2 2 2 2 2 2 2 8 8 10 10
left_child=2 5 9 11 7 10 -5 -3 -6 14 -2 -4 -7 -11 -1
right_child=1 4 3 6 8 12 -8 -9 -10 13 -12 -13 -14 -15 -16
leaf_value=0.028629526288736665 -0.0060641813036796345 -0.016087764597756189 0.0040930677997981016 0.012224422963597626 -0.012847960856448166 0.0044531170955926956 0.0047247263689393698 -0.037561016740975305 0.0058317373249391858 0.03378862077233219 -0.0020152407022835674 -0.00088852990771255496 -0.00081720060853453659 0.020100049060012334 0.0098036032249921752
leaf_weight=1113 33077 21215 16214 27644 13075 10076 40917 9464 2715 11523 35182 21229 44729 3629 3658
leaf_count=1113 33077 21215 16214 27644 13075 10076 40917 9464 2715 11523 35182 21229 44729 3629 3658
internal_value=0 -0.000892718 0.00120549 0.000878412 -0.00220923 -0.00039554 0.00123866 -0.00273604 -0.00118519 0.00294526 -0.000719402 0.00021866 7.80904e-06 0.00336108 0.00162287
internal_weight=0 169533 125927 106004 46469 123064 68561 30679 15790 19923 68259 37443 54805 15152 4771
internal_count=295460 169533 125927 106004 46469 123064 68561 30679 15790 19923 68259 37443 54805 15152 4771
is_linear=0
shrinkage=0.01


Tree=7
num_leaves=16
num_cat=0
split_feature=48 48 48 21 22 11 48 48 22 3 155 95 99 111 111
split_gain=3129.81 1087.3 707.521 247.278 245.804 158.293 156.713 124.084 106.677 92.6845 72.2915 69.7656 67.7026 54.6556 29.5727
threshold=-3.6189094316796393e-05 0.00022521791106555614 -0.00046438386198133225 1.0012949587689947e-05 5.3641551289729261e-07 27843.780273437504 -0.00018689080752665174 0.00058521749451756488 -1.0000000180025095e-35 1.0000000180025095e-35 151467.63281250003 -6.6012144088745104e-05 -0.00026750564575195307 5.0407649609951488e-07 -1.4279484616963598e-06
decision_type=2 2 2 2 2 2 2 2 2 2 2 8 8 10 10
left_child=2 5 8 11 7 9 -5 -3 14 -2 -6 -4 -7 -10 -1
right_child=1 4 3 6 10 12 -8 -9 13 -11 -12 -13 -14 -15 -16
leaf_value=0.026041888502625433 -0.0055770130495771683 -0.015926886951778626 0.0040521371218001203 0.012102178733961648 -0.012719481247883687 0.0044085859246367686 0.0046774791052499763 -0.037185406573565553 0.03276465956011191 -0.0015827180545216902 -0.00098008867496215436 -0.00087964460863542945 -0.00080902860244919117 0.020010229100501507 0.0084874622368560134
leaf_weight=1483 39358 21215 16214 27644 11443 10076 40917 9464 12136 28901 4347 21229 44729 3016 3288
leaf_count=1483 39358 21215 16214 27644 11443 10076 40917 9464 12136 28901 4347 21229 44729 3016 3288
internal_value=0 -0.000884932 0.00119628 0.000871242 -0.00218814 -0.000392777 0.00122816 -0.00270997 0.00292519 -0.000714128 -0.00117379 0.000217592 7.44413e-06 0.00333601 0.00161868
internal_weight=0 169533 125927 106004 46469 123064 68561 30679 19923 68259 15790 37443 54805 15152 4771
internal_count=295460 169533 125927 106004 46469 123064 68561 30679 19923 68259 15790 37443 54805 15152 4771
is_linear=0
shrinkage=0.01


Tree=8
num_leaves=16
num_cat=0
split_feature=48 48 48 22 21 48 11 48 154 22 22 95 99 43 98
split_gain=3070.43 1068.33 696.985 244.181 243.06 154.398 153.795 123.427 113.33 104.285 91.2466 68.2865 66.3249 53.0949 34.1213
threshold=-3.6189094316796393e-05 0.00022521791106555614 -0.00046438386198133225 5.3641551289729261e-07 1.0012949587689947e-05 -0.00014105183799983931 27843.780273437504 0.00058521749451756488 71223.343750000015 -1.0000000180025095e-35 -3.4873337426688518e-06 -6.6012144088745104e-05 -0.00026750564575195307 0.00067261504591442655 -0.0001479685306549072
decision_type=2 2 2 2 2 2 2 2 2 2 2 8 8 10 10
left_child=2 6 9 7 11 -6 10 -3 -5 14 -2 -4 -8 -11 -1
right_child=1 3 4 8 5 -7 12 -9 -10 13 -12 -13 -14 -15 -16
leaf_value=0.028087052619863037 -0.0059510283984949668 -0.015767618082260841 0.0040116157505821187 -0.012592450973641277 0.010685428743391533 0.0038673636938677388 0.0043645000653904009 -0.036813552507829896 0.0057832208384394155 0.032040782011564586 -0.0019433116759649111 -0.00087084816254907513 -0.00080093831642469933 0.018493775132922736 0.0095401052836449722
leaf_weight=1113 33077 21215 16214 13075 36579 31982 10076 9464 2715 12953 35182 21229 44729 2199 3658
leaf_count=1113 33077 21215 16214 13075 36579 31982 10076 9464 2715 12953 35182 21229 44729 2199 3658
internal_value=0 -0.000875258 0.00118612 -0.00216706 0.000863507 0.00121737 -0.000387414 -0.00268716 -0.00115606 0.0029021 -0.000704167 0.000215455 7.07923e-06 0.00330829 0.00161031
internal_weight=0 169533 125927 46469 106004 68561 123064 30679 15790 19923 68259 37443 54805 15152 4771
internal_count=295460 169533 125927 46469 106004 68561 123064 30679 15790 19923 68259 37443 54805 15152 4771
is_linear=0
shrinkage=0.01


Tree=9
num_leaves=16
num_cat=0
split_feature=17 31 11 32 21 15 20 15 20 99 154 21 21 1 20
split_gain=3003.38 606.374 579.162 294.651 261.221 216.538 169.492 164.596 111.559 83.4081 75.5945 70.5184 68.5445 65.5621 40.2571
threshold=1.0447158813476565 0.00029104176792316144 11052.360351562502 -0.0001573078261571936 1.0012949587689947e-05 -0.52007672190666188 -3.3481037462479428e-05 -0.6703926920890807 -4.1488930946798057e-05 -0.00023397803306579587 171883.74218750003 1.2499572676460959e-05 0.00013963592209620404 515.00000000000011 -1.5491730664507483e-05
decision_type=2 2 2 2 2 2 2 2 2 8 2 2 2 2 2
left_child=1 4 3 8 9 -6 10 11 -2 -1 -4 -3 -9 -8 -5
right_child=2 7 6 14 5 -7 13 12 -10 -11 -12 -13 -14 -15 -16
leaf_value=0.00501662196586505 -0.023300022585082437 0.015439145162861949 -0.0067724224540201992 -0.0075667219161940262 0.0092189408493887452 0.0034729188750426466 -0.00040084933049282608 0.0021396141661050782 -0.012489875958032328 -0.00065271916241607252 0.002336285957074758 0.0336036073361149 0.020998422892319762 0.0091097770632083061 -0.0039547950950858278
leaf_weight=12561 21693 2188 32910 19222 37116 50008 32687 2871 10291 36235 3779 10223 6138 2704 14834
leaf_count=12561 21693 2188 32910 19222 37116 50008 32687 2871 10291 36235 3779 10223 6138 2704 14834
internal_value=0 0.00094747 -0.00107323 -0.00174973 0.000700969 0.00102905 -0.000453337 0.0025112 -0.00243903 0.000115125 -0.00092957 0.00325819 0.0014811 4.03455e-05 -0.00110214
internal_weight=0 157340 138120 66040 135920 87124 72080 21420 31984 48796 36689 12411 9009 35391 34056
internal_count=295460 157340 138120 66040 135920 87124 72080 21420 31984 48796 36689 12411 9009 35391 34056
is_linear=0
shrinkage=0.01


end of trees

feature_importances:
market_urgency=35
reference_price_wap_imb=21
reference_price_bid_price_imb=11
weighted_wap_diff_3=10
global_median_size=10
seconds_in_bucket=9
reference_price_ask_price_imb=8
liquidity_imbalance=7
bid_price_diff_3=6
ask_size=5
wap_momentum=4
weighted_wap_diff_5=4
ask_price_bid_price_imb=3
ask_price_diff_3=3
ask_price_wap_imb=2
bid_price_wap_imb=2
ask_price_bid_price_wap_imb2=2
bid_price_diff_1=2
imbalance_buy_sell_flag=1
size_imbalance=1
ask_price_wap_reference_price_imb2=1
relative_spread=1
imbalance_size_ret_1=1
global_std_size=1

parameters:
[boosting: gbdt]
[objective: regression_l1]
[metric: l1]
[tree_learner: serial]
[device_type: cpu]
[data: ]
[valid: ]
[num_iterations: 10]
[learning_rate: 0.01]
[num_leaves: 16]
[num_threads: 4]
[deterministic: 0]
[force_col_wise: 0]
[force_row_wise: 0]
[histogram_pool_size: -1]
[max_depth: 4]
[min_data_in_leaf: 20]
[min_sum_hessian_in_leaf: 0.001]
[bagging_fraction: 0.6]
[pos_bagging_fraction: 1]
[neg_bagging_fraction: 1]
[bagging_freq: 0]
[bagging_seed: 3]
[feature_fraction: 0.8]
[feature_fraction_bynode: 1]
[feature_fraction_seed: 2]
[extra_trees: 0]
[extra_seed: 6]
[early_stopping_round: 0]
[first_metric_only: 0]
[max_delta_step: 0]
[lambda_l1: 0.2]
[lambda_l2: 3.25]
[linear_lambda: 0]
[min_gain_to_split: 0]
[drop_rate: 0.1]
[max_drop: 50]
[skip_drop: 0.5]
[xgboost_dart_mode: 0]
[uniform_drop: 0]
[drop_seed: 4]
[top_rate: 0.2]
[other_rate: 0.1]
[min_data_per_group: 100]
[max_cat_threshold: 32]
[cat_l2: 10]
[cat_smooth: 10]
[max_cat_to_onehot: 4]
[top_k: 20]
[monotone_constraints: ]
[monotone_constraints_method: basic]
[monotone_penalty: 0]
[feature_contri: ]
[forcedsplits_filename: ]
[refit_decay_rate: 0.9]
[cegb_tradeoff: 1]
[cegb_penalty_split: 0]
[cegb_penalty_feature_lazy: ]
[cegb_penalty_feature_coupled: ]
[path_smooth: 0]
[interaction_constraints: ]
[verbosity: -1]
[saved_feature_importance_type: 0]
[linear_tree: 0]
[max_bin: 255]
[max_bin_by_feature: ]
[min_data_in_bin: 3]
[bin_construct_sample_cnt: 200000]
[data_random_seed: 1]
[is_enable_sparse: 1]
[enable_bundle: 1]
[use_missing: 1]
[zero_as_missing: 0]
[feature_pre_filter: 1]
[pre_partition: 0]
[two_round: 0]
[header: 0]
[label_column: ]
[weight_column: ]
[group_column: ]
[ignore_column: ]
[categorical_feature: ]
[forcedbins_filename: ]
[precise_float_parser: 0]
[objective_seed: 5]
[num_class: 1]
[is_unbalance: 0]
[scale_pos_weight: 1]
[sigmoid: 1]
[boost_from_average: 1]
[reg_sqrt: 0]
[alpha: 0.9]
[fair_c: 1]
[poisson_max_delta_step: 0.7]
[tweedie_variance_power: 1.5]
[lambdarank_truncation_level: 30]
[lambdarank_norm: 1]
[label_gain: ]
[eval_at: ]
[multi_error_top_k: 1]
[auc_mu_weights: ]
[num_machines: 1]
[local_listen_port: 12400]
[time_out: 120]
[machine_list_filename: ]
[machines: ]
[gpu_platform_id: -1]
[gpu_device_id: -1]
[gpu_use_dp: 0]
[num_gpu: 1]

end of parameters

pandas_categorical:[]
