tree
version=v3
num_class=1
num_tree_per_iteration=1
label_index=0
max_feature_idx=159
objective=regression_l1
feature_names=stock_id seconds_in_bucket imbalance_size imbalance_buy_sell_flag reference_price matched_size far_price near_price bid_price bid_size ask_price ask_size wap volume mid_price liquidity_imbalance matched_imbalance size_imbalance reference_price_far_price_imb reference_price_near_price_imb reference_price_ask_price_imb reference_price_bid_price_imb reference_price_wap_imb far_price_near_price_imb far_price_ask_price_imb far_price_bid_price_imb far_price_wap_imb near_price_ask_price_imb near_price_bid_price_imb near_price_wap_imb ask_price_bid_price_imb ask_price_wap_imb bid_price_wap_imb ask_price_bid_price_wap_imb2 ask_price_bid_price_reference_price_imb2 ask_price_wap_reference_price_imb2 bid_price_wap_reference_price_imb2 matched_size_bid_size_ask_size_imb2 matched_size_bid_size_imbalance_size_imb2 matched_size_ask_size_imbalance_size_imb2 bid_size_ask_size_imbalance_size_imb2 stock_weights weighted_wap wap_momentum imbalance_momentum price_spread spread_intensity price_pressure market_urgency depth_pressure spread_depth_ratio mid_price_movement micro_price relative_spread all_prices_mean all_sizes_mean all_prices_std all_sizes_std all_prices_skew all_sizes_skew all_prices_kurt all_sizes_kurt matched_size_shift_1 matched_size_ret_1 matched_size_shift_3 matched_size_ret_3 matched_size_shift_5 matched_size_ret_5 matched_size_shift_10 matched_size_ret_10 imbalance_size_shift_1 imbalance_size_ret_1 imbalance_size_shift_3 imbalance_size_ret_3 imbalance_size_shift_5 imbalance_size_ret_5 imbalance_size_shift_10 imbalance_size_ret_10 reference_price_shift_1 reference_price_ret_1 reference_price_shift_3 reference_price_ret_3 reference_price_shift_5 reference_price_ret_5 reference_price_shift_10 reference_price_ret_10 imbalance_buy_sell_flag_shift_1 imbalance_buy_sell_flag_ret_1 imbalance_buy_sell_flag_shift_3 imbalance_buy_sell_flag_ret_3 imbalance_buy_sell_flag_shift_5 imbalance_buy_sell_flag_ret_5 imbalance_buy_sell_flag_shift_10 imbalance_buy_sell_flag_ret_10 ask_price_diff_1 ask_price_diff_3 ask_price_diff_5 ask_price_diff_10 bid_price_diff_1 bid_price_diff_3 bid_price_diff_5 bid_price_diff_10 ask_size_diff_1 ask_size_diff_3 ask_size_diff_5 ask_size_diff_10 bid_size_diff_1 bid_size_diff_3 bid_size_diff_5 bid_size_diff_10 weighted_wap_diff_1 weighted_wap_diff_3 weighted_wap_diff_5 weighted_wap_diff_10 price_spread_diff_1 price_spread_diff_3 price_spread_diff_5 price_spread_diff_10 price_change_diff_3 size_change_diff_3 price_change_diff_5 size_change_diff_5 price_change_diff_10 size_change_diff_10 rolling_diff_ask_price_3 rolling_std_diff_ask_price_3 rolling_diff_bid_price_3 rolling_std_diff_bid_price_3 rolling_diff_ask_size_3 rolling_std_diff_ask_size_3 rolling_diff_bid_size_3 rolling_std_diff_bid_size_3 rolling_diff_ask_price_5 rolling_std_diff_ask_price_5 rolling_diff_bid_price_5 rolling_std_diff_bid_price_5 rolling_diff_ask_size_5 rolling_std_diff_ask_size_5 rolling_diff_bid_size_5 rolling_std_diff_bid_size_5 rolling_diff_ask_price_10 rolling_std_diff_ask_price_10 rolling_diff_bid_price_10 rolling_std_diff_bid_price_10 rolling_diff_ask_size_10 rolling_std_diff_ask_size_10 rolling_diff_bid_size_10 rolling_std_diff_bid_size_10 mid_price*volume harmonic_imbalance dow seconds minute time_to_market_close global_median_size global_std_size global_ptp_size global_median_price global_std_price global_ptp_price
feature_infos=[0:198] [0:540] [0:824023744] [-1:1] [0.97834402322769165:1.0213700532913208] [29435.26953125:5294682112] [0.00019200000679120421:437.95309448242188] [0.89931100606918335:1.1033370494842529] [0.9787909984588623:1.0214149951934814] [21.100000381469727:9403017] [0.98060697317123413:1.023000955581665] [21.569999694824219:12648611] [0.98015302419662476:1.0214300155639648] [113.95999908447266:12663337] [0.980368971824646:1.0222079753875732] [-0.99990236759185791:0.99991899728775024] [-1:0.94635987281799316] [4.8808717110659927e-05:24663.822265625] [-0.99545580148696899:0.9996153712272644] [-0.047608666121959686:0.052617792040109634] [-0.0054261102341115475:0.0019028319511562586] [-0.0033125730697065592:0.0055231223814189434] [-0.0037805764004588127:0.0041166436858475208] [-0.99960911273956299:0.995414137840271] [-0.99961543083190918:0.99545580148696899] [-0.9996153712272644:0.99546051025390625] [-0.9996153712272644:0.9954599142074585] [-0.052691739052534103:0.047588299959897995] [-0.05225595086812973:0.047662988305091858] [-0.052333846688270569:0.047620117664337158] [6.4977866713888943e-06:0.0058676949702203274] [0:0.0053507438860833645] [-0.0044427774846553802:0] [-10168:13504] [-60180:72408] [-14849:36640] [-56708:53232] [-34702675968:5305969152] [0.00010806324280565605:24531372] [0.00010710284550441429:660306560] [-4309335040:1350741504] [0.0010000000474974513:0.039999999105930328] [0.00098357396200299263:0.040271159261465073] [-0.027639660984277725:0.019564615562558174] [-5.2015318870544434:35.478435516357422] [1.2993812561035156e-05:0.011926054954528809] [-0.0064240694046020508:0.010834097862243652] [0:2908804.5] [-0.0098587134853005409:0.0074262982234358788] [-1678201.5:21917276] [2.2576309311600484e-12:8.3254235505592078e-06] [-1:1] [0.98015350103378296:1.021430492401123] [1.29955278680427e-05:0.011792457662522793] [0.82911300659179688:73.824501037597656] [9429.0673828125:1450551552] [6.1320406530285254e-06:178.38584899902344] [13050.109375:2625949440] [-2.4494898319244385:2.4494898319244385] [-1.9616857767105103:2] [-6:6] [-5.9999985694885254:4] [29435.26953125:5294682112] [-0.99614721536636353:118.06473541259766] [29435.26953125:5282925056] [-0.99614936113357544:118.79173278808594] [29435.26953125:5285577216] [-0.99614673852920532:121.46620941162109] [29435.26953125:5294682112] [-0.99608153104782104:124.05175018310547] [0:824023744] [-1:27464.337890625] [0:864677376] [-1:28776.21484375] [0:864672000] [-1:20563.416015625] [0:864677376] [-1:41509.23046875] [0.97792702913284302:1.0213700532913208] [-0.022624552249908447:0.019994020462036133] [0.97792702913284302:1.0225869417190552] [-0.022339284420013428:0.019180536270141602] [0.97792702913284302:1.0225869417190552] [-0.022624552249908447:0.019180536270141602] [0.97834402322769165:1.022379994392395] [-0.020763576030731201:0.020680069923400879] [-1:1] [-2:0] [-1:1] [-2:0] [-1:1] [-2:0] [-1:1] [-2:0] [-0.021300077438354492:0.019778013229370117] [-0.021002054214477539:0.020912051200866699] [-0.021300077438354492:0.020912051200866699] [-0.020701050758361816:0.022088050842285156] [-0.022810041904449463:0.016120016574859619] [-0.022211968898773193:0.021143972873687744] [-0.021912992000579834:0.018819034099578857] [-0.021307945251464844:0.01917797327041626] [-12076207:12639082] [-12106967:12607515] [-12774282:12646450] [-12707851:12559977] [-8394910:9381258] [-13362642:9335026] [-13493084:9335019] [-9386019:9402337] [-0.00023024082474876195:0.00011568069749046117] [-0.00022827625798527151:0.00015275954501703382] [-0.00026999949477612972:0.00016747952031437308] [-0.00026711940881796181:0.0001887178368633613] [-0.0064240694046020508:0.010834097862243652] [-0.0098579525947570801:0.010960102081298828] [-0.0098579525947570801:0.010960102081298828] [-0.011716127395629883:0.010765969753265381] [-0.010960102081298828:0.0098579525947570801] [-13313911:12122107] [-0.010960102081298828:0.0098579525947570801] [-13504571:12917346] [-0.010765969753265381:0.011716127395629883] [-12594076:12592347] [-0.019093355163931847:0.013897676952183247] [0:0.012312674894928932] [-0.021710991859436035:0.012999336235225201] [0:0.013530648313462734] [-5236968:7804164] [0:9474722] [-5210481:3096262.75] [0:9834916] [-0.019074033945798874:0.01821218803524971] [0:0.013246810063719749] [-0.021068787202239037:0.017523419111967087] [0:0.01284337043762207] [-7403456:5491219] [0:11978019] [-3194568.5:4914045] [0:7376391] [-0.017245341092348099:0.018172884359955788] [0:0.015582887455821037] [-0.018308073282241821:0.017449002712965012] [0:0.014984274283051491] [-4743052.5:4787111] [0:7534406] [-4171125.25:3359331.5] [92.0869140625:6227474.5] [-8136068.5:12663337] [42.083160400390625:2209639.25] [0:4] [0:50] [0:9] [0:540] [16479.779296875:639569.25] [48416.8359375:1300069.375] [404244.96875:30287728] [1.9995479583740234:2.0008180141448975] [0.0026509501039981842:0.010191904380917549] [0.011628925800323486:0.093690931797027588]
tree_sizes=1712 1733 1731 1728 1713 1740 1727 1729 1729 1715

Tree=0
num_leaves=16
num_cat=0
split_feature=15 15 31 32 21 20 22 33 20 95 43 95 73 20 142
split_gain=4496.6 951.71 912.415 534.954 418.671 270.034 249.29 245.416 224.493 152.541 105.11 104.019 90.8391 87.9133 44.4184
threshold=-0.064344119280576692 0.58805936574935924 0.00028141228540334856 -0.00014621016453020272 1.0000000180025095e-35 -3.3539559808559709e-05 -1.9961288671765939e-05 4.0684940814971933 -1.3005641449126413e-05 0.00031846761703491216 0.00076238496694713842 -6.1511993408203111e-05 -0.23955383896827695 -1.0998558082064845e-05 0.0003851085930364207
decision_type=2 2 10 10 10 8 10 8 10 8 10 8 8 10 8
left_child=2 5 4 8 11 9 14 -6 -3 -2 -8 -1 -7 -5 -4
right_child=1 3 6 13 7 12 10 -9 -10 -11 -12 -13 -14 -15 -16
leaf_value=-0.066035985946655273 -0.073540210723876953 -0.094139575958251953 -0.053042173385620117 -0.0774383544921875 -0.064843893051147461 -0.074940919876098633 -0.036543607711791992 -0.058835744857788086 -0.080442428588867188 -0.081640481948852539 -0.05099177360534668 -0.070840120315551758 -0.06853938102722168 -0.07184147834777832 -0.07184147834777832
leaf_weight=25195 53718 32031 4366 19605 57076 8670 19932 39582 10372 18212 3501 33432 46454 16320 2003
leaf_count=25195 53718 32031 4366 19605 57076 8670 19932 39582 10372 18212 3501 33432 46454 16320 2003
internal_value=-0.0697374 -0.0707502 -0.068601 -0.0716171 -0.0689087 -0.0702156 -0.0669984 -0.0685043 -0.0723778 -0.0706192 -0.0665216 -0.0695754 -0.069689 -0.0707191 -0.0687538
internal_weight=0 205382 185087 78328 155285 127054 29802 96658 42403 71930 23433 58627 55124 35925 6369
internal_count=390469 205382 185087 78328 155285 127054 29802 96658 42403 71930 23433 58627 55124 35925 6369
is_linear=0
shrinkage=1


Tree=1
num_leaves=16
num_cat=0
split_feature=48 48 48 21 22 48 22 22 154 12 95 1 15 111 48
split_gain=4440.73 1573.31 963.226 413.163 294.405 293.338 217.052 213.33 124.201 116.808 99.6627 99.3455 96.9881 92.6544 85.0679
threshold=3.4752560168271891e-05 -0.00018546020146459338 0.00030688842525705701 1.0000000180025095e-35 9.5309911785079759e-07 -0.00068553254823200394 -1.4877974763294331e-06 -2.1505588847503528e-05 73623.113281250015 0.9996754825115205 0.00011602044105529787 515.00000000000011 -0.78953555226325978 -2.4747848215156404e-07 0.00011782978617702612
decision_type=10 10 10 8 10 10 10 10 2 10 8 2 2 10 10
left_child=1 3 6 12 9 -5 14 10 -6 -4 -3 -8 -1 -9 -2
right_child=2 7 4 5 8 -7 11 13 -10 -11 -12 -13 -14 -15 -16
leaf_value=0.010554730892181396 -0.0043472647666931152 0.00053992867469787598 -0.018757939338684082 0.040860831737518311 -0.015497446060180664 0.01504892110824585 -0.0025666952133178711 0.0047611594200134277 0.0078438222408294678 -0.028556942939758301 -0.0047661066055297852 0.008285820484161377 0.00060707330703735352 0.0014840960502624512 -0.0097669363021850586
leaf_weight=9758 26325 32163 9197 12044 11782 47589 50692 47321 2133 23031 17480 3189 9979 56306 31480
leaf_count=9758 26325 32163 9197 12044 11782 47589 50692 47321 2133 23031 17480 3189 9979 56306 31480
internal_value=0 0.000884092 -0.00128901 0.00202685 -0.00250439 0.00244194 -0.000786808 0.000292275 -0.00128809 -0.0030293 -0.000246705 -0.000330115 0.000772432 0.000550496 -0.00121242
internal_weight=0 232640 157829 79370 46143 59633 111686 153270 13915 32228 49643 53881 19737 103627 57805
internal_count=390469 232640 157829 79370 46143 59633 111686 153270 13915 32228 49643 53881 19737 103627 57805
is_linear=0
shrinkage=0.01


Tree=2
num_leaves=16
num_cat=0
split_feature=48 48 48 20 21 21 48 48 111 48 154 111 20 33 145
split_gain=4356.03 1354 1108.12 348.01 320.02 239.718 196.945 179.328 177.877 147.697 138.57 96.3529 95.1223 85.9457 71.8927
threshold=-1.9218845409341153e-05 0.00021700470097130167 -0.0003327520535094663 -1.5468976926058527e-05 1.0000000180025095e-35 1.0000000180025095e-35 0.00058291465393267583 -0.00013392136315815148 5.0437449772289266e-07 -0.00068553254823200394 71223.343750000015 -9.0777874106606749e-07 -1.7495713109383356e-05 9.1503424644470233 70895.074218750015
decision_type=10 10 10 10 10 8 10 10 8 10 2 8 8 8 8
left_child=2 8 5 6 11 13 -3 -6 12 -7 -5 -4 -2 -1 -10
right_child=1 3 4 10 7 9 -8 -9 14 -11 -12 -13 -14 -15 -16
leaf_value=-0.00067781150341033941 -0.002618589997291565 -0.016025863885879517 0.0045531043410301213 -0.011057637929916382 0.010141504406929016 0.040452223420143131 -0.036872323751449589 0.0037330394983291627 -0.0067397147417068487 0.019419563412666322 0.0060478818416595456 -0.00090384423732757567 0.001042599380016327 0.01620734989643097 -0.0018217870593070984
leaf_weight=3781 49942 33524 14522 13721 38715 12044 15030 47046 36490 22493 3629 38128 39597 5058 16749
leaf_count=3781 49942 33524 14522 13721 38715 12044 15030 47046 36490 22493 3629 38128 39597 5058 16749
internal_value=0 -0.000977731 0.00113971 -0.00216331 0.000702587 0.00253435 -0.00259772 0.00107933 -0.000430435 0.00291046 -0.000947258 8.88454e-05 -0.000158227 0.00106398 -0.000888167
internal_weight=0 208682 181787 65904 138411 43376 48554 85761 142778 34537 17350 52650 89539 8839 53239
internal_count=390469 208682 181787 65904 138411 43376 48554 85761 142778 34537 17350 52650 89539 8839 53239
is_linear=0
shrinkage=0.01


Tree=3
num_leaves=16
num_cat=0
split_feature=48 48 48 21 48 22 22 22 154 52 1 95 99 33 48
split_gain=4284.1 1527.77 938.24 400.186 280.909 264.325 224.462 208.365 118.248 111.238 100.183 98.6927 96.5015 93.4421 91.4794
threshold=3.4752560168271891e-05 -0.00018546020146459338 0.00032508681761100894 1.0000000180025095e-35 -0.00068553254823200394 9.5309911785079759e-07 -1.4877974763294331e-06 -2.1505588847503528e-05 73623.113281250015 0.99970689415931713 515.00000000000011 0.00011602044105529787 -0.0003735125064849853 9.1503424644470233 0.00011782978617702612
decision_type=10 10 10 8 10 10 10 10 2 10 2 8 10 8 10
left_child=1 3 6 13 -5 9 14 11 -7 -4 -8 -3 -9 -1 -2
right_child=2 7 5 4 -6 8 10 12 -10 -11 -12 -13 -14 -15 -16
leaf_value=0.00080673634409904479 -0.004255885690450668 0.0005093845665454864 -0.018904971516132355 0.040047701185941698 0.014736935371160506 -0.015827941668033602 -0.0026014625519514083 0.0077962452679872516 0.0078420852899551401 -0.029213800799846649 0.0083546945542097104 -0.0046713735759258265 0.0020983046233654023 0.010506263369321823 -0.009839776366949082
leaf_weight=10429 26325 32163 8760 12044 47589 10851 51839 17510 1911 21481 3246 17480 86117 9308 33416
leaf_count=10429 26325 32163 8760 12044 47589 10851 51839 17510 1911 21481 3246 17480 86117 9308 33416
internal_value=0 0.000870767 -0.00126367 0.00199687 0.00240538 -0.00252354 -0.000791767 0.000287578 -0.00131592 -0.00303291 -0.00033125 -0.000245094 0.000542776 0.0007623 -0.00121632
internal_weight=0 232640 157829 79370 59633 43003 114826 153270 12762 30241 55085 49643 103627 19737 59741
internal_count=390469 232640 157829 79370 59633 43003 114826 153270 12762 30241 55085 49643 103627 19737 59741
is_linear=0
shrinkage=0.01


Tree=4
num_leaves=16
num_cat=0
split_feature=33 15 22 45 15 30 20 20 21 45 33 95 20 17 99
split_gain=4184.86 863.88 791.992 491.367 321.86 262.919 244.139 203.003 174.596 169.04 142.503 139 93.4861 90.1336 84.811
threshold=1.0886269807815554 0.58805936574935924 8.9603003289084895e-05 0.00034102797508239752 -0.70565104484558094 0.00048054548096843069 -3.3539559808559709e-05 -1.3005641449126413e-05 1.7059013771358881e-05 0.0003500282764434815 5.894752264022828 0.00031846761703491216 -1.0998558082064845e-05 0.1287331506609917 0.00030001997947692877
decision_type=8 2 8 10 2 8 10 10 10 10 8 8 10 2 8
left_child=1 6 4 12 9 10 11 -5 -6 -2 -4 -1 -3 -7 -8
right_child=2 3 5 7 8 13 14 -9 -10 -11 -12 -13 -14 -15 -16
leaf_value=-0.003749055805742741 0.0049000369281172748 -0.0078695920506119729 0.0087783158076405517 -0.024259524221614006 -0.00049835024470090868 0.054256322608530527 0.0012273284102380275 -0.010573465123057367 0.0045892000449299815 0.01758929222291708 0.017188328529655933 -0.011679767710864543 -0.0023397711609899996 0.031147601829111578 -0.0042455364381372932
leaf_weight=51918 27114 21187 23236 30463 46277 4295 41441 9538 48553 13679 19877 17711 17140 5844 12196
leaf_count=51918 27114 21187 23236 30463 46277 4295 41441 9538 48553 13679 19877 17711 17140 5844 12196
internal_value=0 -0.000995936 0.00107566 -0.00181713 0.000669841 0.00210905 -0.000474068 -0.00259242 0.000350278 0.00141258 0.00176796 -0.000864657 -0.00100777 0.00355818 3.29603e-05
internal_weight=0 201594 188875 78328 135623 53252 123266 40001 94830 40793 43113 69629 38327 10139 53637
internal_count=390469 201594 188875 78328 135623 53252 123266 40001 94830 40793 43113 69629 38327 10139 53637
is_linear=0
shrinkage=0.01


Tree=5
num_leaves=16
num_cat=0
split_feature=48 48 48 22 22 48 22 48 22 154 95 126 48 99 101
split_gain=4126.37 1277.99 1054.35 347.419 340.055 226.578 193.925 191.898 177.972 149.18 123.783 92.9837 90.967 79.1333 35.2427
threshold=-1.9218845409341153e-05 0.00021700470097130167 -0.00041097616485785688 9.5309911785079759e-07 -5.4917356919759178e-06 -0.00012802323908545074 -5.4917356919759178e-06 0.00058291465393267583 -1.9961288671765939e-05 71223.343750000015 -6.5952539443969713e-05 9.8357599199516712e-05 -0.00068553254823200394 0.00018003582954406741 -0.00079548358917236317
decision_type=10 10 10 10 10 10 10 10 8 2 10 10 10 8 8
left_child=2 6 8 7 10 -6 13 -3 14 -5 -4 -8 -10 -2 -1
right_child=1 3 4 9 5 -7 11 -9 12 -11 -12 -13 -14 -15 -16
leaf_value=0.022388880834516289 -0.0030341747944563628 -0.01551302110003531 0.0042087054501050714 -0.012355965393037649 0.01011422737936914 0.0032235224721902612 0.001081091302817166 -0.036873280400917981 0.038739701708037255 0.0060787529810507604 -0.0014839413385397196 -0.002955848436946571 0.020929096783208249 -0.0073682624026840931 0.0048168378649944069
leaf_weight=1745 45156 30676 24230 17847 48135 43252 45314 13722 12031 3659 33426 29020 15336 23288 3632
leaf_count=1745 45156 30676 24230 17847 48135 43252 45314 13722 12031 3659 33426 29020 15336 23288 3632
internal_value=0 -0.000952621 0.00110824 -0.00210444 0.00075123 0.00113062 -0.00042091 -0.00260979 0.00273299 -0.00106085 0.000149811 -6.72341e-05 0.00305982 -0.00080497 0.00106835
internal_weight=0 208682 181787 65904 149043 91387 142778 44398 32744 21506 57656 74334 27367 68444 5377
internal_count=390469 208682 181787 65904 149043 91387 142778 44398 32744 21506 57656 74334 27367 68444 5377
is_linear=0
shrinkage=0.01


Tree=6
num_leaves=16
num_cat=0
split_feature=48 48 48 21 48 22 22 22 154 12 1 99 95 15 48
split_gain=4044.76 1444 892.607 382.679 259.847 254.438 212.628 195.563 113.926 111.193 97.557 95.1671 94.8603 87.5715 86.1294
threshold=3.4752560168271891e-05 -0.00018546020146459338 0.00032508681761100894 1.0000000180025095e-35 -0.00068553254823200394 9.5309911785079759e-07 -1.4877974763294331e-06 -2.1505588847503528e-05 73623.113281250015 0.99970051646232616 515.00000000000011 -0.0003735125064849853 0.00011602044105529787 -0.78953555226325978 0.00013370792294153946
decision_type=10 10 10 8 8 10 10 10 2 10 2 10 8 2 10
left_child=1 3 6 13 -5 9 14 12 -7 -4 -8 -9 -3 -1 -2
right_child=2 7 5 4 -6 8 10 11 -10 -11 -12 -13 -14 -15 -16
leaf_value=0.010070644394467478 -0.0043903742169800345 0.00052411363671243775 -0.018177886918250338 0.03919523223230105 0.014316540458358651 -0.015440367946192315 -0.0025321784448591378 0.0076529779200447861 0.0077453322716264528 -0.028422609442513527 0.0083528133698082072 0.0020422033706408798 -0.0045777135977403231 0.00053135835639358153 -0.010038938976132492
leaf_weight=9758 30228 32163 8731 12020 47613 10851 51839 17510 1911 21510 3246 86117 17480 9979 29513
leaf_count=9758 30228 32163 8731 12020 47613 10851 51839 17510 1911 21510 3246 86117 17480 9979 29513
internal_value=0 0.000844374 -0.00122958 0.00193917 0.00233864 -0.00245843 -0.000769299 0.0002774 -0.00127361 -0.00295818 -0.000321085 0.000524634 -0.000238648 0.000731906 -0.00118251
internal_weight=0 232640 157829 79370 59633 43003 114826 153270 12762 30241 55085 103627 49643 19737 59741
internal_count=390469 232640 157829 79370 59633 43003 114826 153270 12762 30241 55085 103627 49643 19737 59741
is_linear=0
shrinkage=0.01


Tree=7
num_leaves=16
num_cat=0
split_feature=48 48 48 21 48 22 22 21 12 48 1 95 48 17 155
split_gain=3975.27 1416.74 875.541 374.436 255.989 251.516 209.897 193.483 108.324 102.422 96.634 95.1804 84.9189 84.8591 70.9144
threshold=3.4752560168271891e-05 -0.00018546020146459338 0.00032508681761100894 1.0000000180025095e-35 -0.00068553254823200394 9.5309911785079759e-07 -1.4877974763294331e-06 1.4996888694440715e-05 0.99970051646232616 -9.3964219558984028e-05 515.00000000000011 0.00022199749946594241 0.00011782978617702612 0.11754765361547471 205554.87500000003
decision_type=10 10 10 8 8 10 10 10 10 10 2 8 10 2 2
left_child=1 3 6 13 -5 8 12 11 -4 -9 -8 -3 -2 -1 -7
right_child=2 7 5 4 -6 14 10 9 -10 -11 -12 -13 -14 -15 -16
leaf_value=0.0099683194767068856 -0.0040626152326867252 0.00035624151695490464 -0.017996108049067833 0.03880327990997804 0.014173375053775066 -0.014385934130621992 -0.002506856660410547 0.0065401966564309832 -0.028138383348088391 0.0019353882323999672 0.0082692852361101257 -0.0046898422848749548 -0.0094367646976791369 0.00061422265782856353 0.0054967966957354623
leaf_weight=9747 26325 47013 8731 12020 47613 11301 51839 26557 21510 65207 3246 14493 33416 9990 1461
leaf_count=9747 26325 47013 8731 12020 47613 11301 51839 26557 21510 65207 3246 14493 33416 9990 1461
internal_value=0 0.000835606 -0.00122046 0.00192002 0.00231517 -0.00243751 -0.000764596 0.000274007 -0.00293438 0.000564886 -0.00031927 -0.000159943 -0.00117514 0.000725827 -0.00125951
internal_weight=0 232640 157829 79370 59633 43003 114826 153270 30241 91764 55085 61506 59741 19737 12762
internal_count=390469 232640 157829 79370 59633 43003 114826 153270 30241 91764 55085 61506 59741 19737 12762
is_linear=0
shrinkage=0.01


Tree=8
num_leaves=16
num_cat=0
split_feature=48 48 48 21 22 48 48 22 22 154 99 95 43 11 43
split_gain=3916.57 1226.91 1006.91 351.39 334.382 210.077 189.433 185.474 171.744 144.838 100.657 100.132 89.1147 77.4502 33.3952
threshold=-1.9218845409341153e-05 0.00021700470097130167 -0.00041097616485785688 1.0000000180025095e-35 9.5309911785079759e-07 -0.00013392136315815148 0.00058291465393267583 -2.0536394004011523e-05 -1.9961288671765939e-05 71223.343750000015 0.00019049644470214846 -6.1511993408203111e-05 0.00034523247450124478 26703.830078125004 -0.001452348835300654
decision_type=10 10 10 10 10 10 10 10 8 2 8 8 10 2 8
left_child=2 7 8 11 6 -5 -3 13 14 -6 -9 -4 -10 -2 -1
right_child=1 4 3 5 9 -7 -8 10 12 -11 -12 -13 -14 -15 -16
leaf_value=0.029141145348636609 -0.0062686544410768021 -0.015059882281331141 0.003360983570594115 0.010294907847474197 -0.012042663397103859 0.0035429524125454542 -0.036035882564031847 0.00065262765192872717 0.029077125637467737 0.0060089576761741762 -0.0036746018415146427 -0.0014814455147998218 0.01877301460737589 -0.0022915702354377055 0.0068596490895820803
leaf_weight=977 36457 30676 23721 46606 17847 47046 13722 57029 21435 3659 24875 31670 5932 24417 4400
leaf_count=977 36457 30676 23721 46606 17847 47046 13722 57029 21435 3659 24875 31670 5932 24417 4400
internal_value=0 -0.000929141 0.00107865 0.00072976 -0.00205771 0.00110317 -0.00255349 -0.000408163 0.00266642 -0.00103388 -9.74029e-05 9.83496e-05 0.00298748 -0.00082622 0.00103118
internal_weight=0 208682 181787 149043 65904 93652 44398 142778 32744 21506 81904 55391 27367 60874 5377
internal_count=390469 208682 181787 149043 65904 93652 44398 142778 32744 21506 81904 55391 27367 60874 5377
is_linear=0
shrinkage=0.01


Tree=9
num_leaves=16
num_cat=0
split_feature=15 15 31 32 21 20 17 20 17 95 21 1 20 73 154
split_gain=3830.24 808.324 793.373 465.135 322.29 241.585 195.766 189.334 183.79 140.833 121.88 97.1605 94.7535 89.5241 83.6344
threshold=-0.064344119280576692 0.58805936574935924 0.00025657787045929586 -0.00016562405653530729 1.0000000180025095e-35 -3.3539559808559709e-05 0.1287331506609917 -4.1944222175516181e-05 0.24134550988674167 0.00031846761703491216 2.3003797650744676e-05 505.00000000000006 -1.0998558082064845e-05 -0.23955383896827695 117222.71093750001
decision_type=2 2 10 10 10 8 2 10 2 8 10 2 10 8 2
left_child=2 5 4 7 11 9 14 -3 -6 -2 -8 -1 -5 -7 -4
right_child=1 3 6 12 8 13 10 -9 -10 -11 -12 -13 -14 -15 -16
leaf_value=0.0014705118619700369 -0.0034374824238494429 -0.025077817897327073 0.029643110962611116 -0.0076784271102201583 0.0095755774572098083 -0.0052082873592888554 6.5455058622276131e-05 -0.01212489255536915 0.0043200956317753858 -0.011213727667810827 0.021677050657122603 -0.0079851198931205694 -0.0023245112465618873 0.0012226018744079942 -0.014582327173523651
leaf_weight=53028 53718 25689 16407 22823 37128 8670 3495 12046 55694 18212 14655 4319 17770 46454 361
leaf_count=53028 53718 25689 16407 22823 37128 8670 3495 12046 55694 18212 14655 4319 17770 46454 361
internal_value=0 -0.000934137 0.00104937 -0.00173313 0.000733611 -0.000441518 0.00240707 -0.00253239 0.00109774 -0.000823235 0.00168664 0.000144167 -0.000989944 5.656e-05 0.00318629
internal_weight=0 205382 185087 78328 150169 127054 34918 37735 92822 71930 18150 57347 40593 55124 16768
internal_count=390469 205382 185087 78328 150169 127054 34918 37735 92822 71930 18150 57347 40593 55124 16768
is_linear=0
shrinkage=0.01


end of trees

feature_importances:
market_urgency=38
reference_price_wap_imb=20
reference_price_bid_price_imb=12
reference_price_ask_price_imb=11
ask_price_diff_3=10
liquidity_imbalance=8
global_median_size=7
seconds_in_bucket=5
ask_price_bid_price_wap_imb2=5
bid_price_diff_3=5
size_imbalance=4
wap=3
wap_momentum=3
weighted_wap_diff_3=3
ask_price_wap_imb=2
bid_price_wap_imb=2
price_spread=2
imbalance_size_ret_3=2
ask_size=1
ask_price_bid_price_imb=1
micro_price=1
bid_price_diff_10=1
rolling_diff_bid_price_3=1
rolling_diff_bid_price_10=1
rolling_std_diff_ask_size_10=1
global_std_size=1

parameters:
[boosting: gbdt]
[objective: regression_l1]
[metric: l1]
[tree_learner: serial]
[device_type: cpu]
[data: ]
[valid: ]
[num_iterations: 10]
[learning_rate: 0.01]
[num_leaves: 16]
[num_threads: 4]
[deterministic: 0]
[force_col_wise: 0]
[force_row_wise: 0]
[histogram_pool_size: -1]
[max_depth: 4]
[min_data_in_leaf: 20]
[min_sum_hessian_in_leaf: 0.001]
[bagging_fraction: 0.6]
[pos_bagging_fraction: 1]
[neg_bagging_fraction: 1]
[bagging_freq: 0]
[bagging_seed: 3]
[feature_fraction: 0.8]
[feature_fraction_bynode: 1]
[feature_fraction_seed: 2]
[extra_trees: 0]
[extra_seed: 6]
[early_stopping_round: 0]
[first_metric_only: 0]
[max_delta_step: 0]
[lambda_l1: 0.2]
[lambda_l2: 3.25]
[linear_lambda: 0]
[min_gain_to_split: 0]
[drop_rate: 0.1]
[max_drop: 50]
[skip_drop: 0.5]
[xgboost_dart_mode: 0]
[uniform_drop: 0]
[drop_seed: 4]
[top_rate: 0.2]
[other_rate: 0.1]
[min_data_per_group: 100]
[max_cat_threshold: 32]
[cat_l2: 10]
[cat_smooth: 10]
[max_cat_to_onehot: 4]
[top_k: 20]
[monotone_constraints: ]
[monotone_constraints_method: basic]
[monotone_penalty: 0]
[feature_contri: ]
[forcedsplits_filename: ]
[refit_decay_rate: 0.9]
[cegb_tradeoff: 1]
[cegb_penalty_split: 0]
[cegb_penalty_feature_lazy: ]
[cegb_penalty_feature_coupled: ]
[path_smooth: 0]
[interaction_constraints: ]
[verbosity: -1]
[saved_feature_importance_type: 0]
[linear_tree: 0]
[max_bin: 255]
[max_bin_by_feature: ]
[min_data_in_bin: 3]
[bin_construct_sample_cnt: 200000]
[data_random_seed: 1]
[is_enable_sparse: 1]
[enable_bundle: 1]
[use_missing: 1]
[zero_as_missing: 0]
[feature_pre_filter: 1]
[pre_partition: 0]
[two_round: 0]
[header: 0]
[label_column: ]
[weight_column: ]
[group_column: ]
[ignore_column: ]
[categorical_feature: ]
[forcedbins_filename: ]
[precise_float_parser: 0]
[objective_seed: 5]
[num_class: 1]
[is_unbalance: 0]
[scale_pos_weight: 1]
[sigmoid: 1]
[boost_from_average: 1]
[reg_sqrt: 0]
[alpha: 0.9]
[fair_c: 1]
[poisson_max_delta_step: 0.7]
[tweedie_variance_power: 1.5]
[lambdarank_truncation_level: 30]
[lambdarank_norm: 1]
[label_gain: ]
[eval_at: ]
[multi_error_top_k: 1]
[auc_mu_weights: ]
[num_machines: 1]
[local_listen_port: 12400]
[time_out: 120]
[machine_list_filename: ]
[machines: ]
[gpu_platform_id: -1]
[gpu_device_id: -1]
[gpu_use_dp: 0]
[num_gpu: 1]

end of parameters

pandas_categorical:[]
